{
  "all_results": [
    {},
    {},
    {},
    {},
    {},
    {},
    {},
    {},
    {},
    {}
  ]
}{
  "all_results": [
    {},
    {},
    {},
    {},
    {},
    {},
    {},
    {},
    {},
    {}
  ]
}{
  "all_results": [
    {},
    {},
    {},
    {},
    {},
    {},
    {},
    {},
    {},
    {}
  ]
}{
  "all_results": [
    {},
    {},
    {},
    {},
    {},
    {},
    {},
    {},
    {},
    {}
  ]
}{
  "all_results": [
    {},
    {},
    {},
    {},
    {},
    {},
    {},
    {},
    {},
    {}
  ]
}{
  "all_results": [
    {},
    {},
    {},
    {},
    {},
    {},
    {},
    {},
    {},
    {}
  ]
}{
  "all_results": [
    {},
    {},
    {},
    {},
    {},
    {},
    {},
    {},
    {},
    {}
  ]
}{
  "all_results": [
    {},
    {},
    {},
    {},
    {},
    {},
    {},
    {},
    {},
    {}
  ]
}{
  "all_results": [
    {},
    {},
    {},
    {},
    {},
    {},
    {},
    {},
    {},
    {}
  ]
}{
  "all_results": [
    {},
    {},
    {},
    {},
    {},
    {},
    {},
    {},
    {},
    {}
  ]
}{
  "average_training_loss": 0.14670210033655168,
  "average_testing_loss": 0.14670210033655168,
  "best_weight": [
    -0.7090898156166077,
    -0.7856414914131165,
    -0.6030523777008057,
    -0.823967695236206,
    -0.4719791114330292,
    -0.06858119368553162,
    0.04787050187587738,
    -0.3263591229915619,
    -0.015882141888141632,
    0.09819801896810532,
    -0.2132721245288849,
    0.008020341396331787,
    0.43433427810668945,
    0.3686111867427826,
    0.4464508891105652,
    0.6537708640098572,
    -0.4220680594444275,
    0.17571984231472015,
    -3.289276599884033,
    -0.34007227420806885,
    -0.09440270811319351,
    1.6704928874969482,
    -0.09488442540168762,
    0.12506023049354553,
    -0.18192075192928314,
    -0.37844836711883545,
    -0.14785467088222504,
    -0.20203058421611786,
    0.08092284202575684,
    0.09757563471794128,
    -0.052688419818878174,
    -0.9153028726577759,
    1.02297043800354,
    0.10853110998868942,
    0.09492723643779755,
    -0.6648187041282654,
    0.27205461263656616,
    0.054951027035713196,
    0.23419374227523804,
    0.1310790777206421,
    0.1944318413734436,
    0.27204641699790955,
    0.04933907836675644,
    -0.39342108368873596,
    0.19733114540576935,
    -0.3252817392349243,
    -0.1551484316587448,
    0.04121844097971916,
    0.10656630992889404,
    -1.3728018999099731,
    0.3028545677661896,
    -0.1361227184534073,
    0.35105475783348083,
    -0.08940929919481277,
    0.19473432004451752,
    -0.8926885724067688,
    0.27003738284111023,
    -0.6475929617881775,
    -1.2875432968139648,
    -0.30897483229637146,
    0.4044310450553894,
    0.1089504212141037,
    -0.13118360936641693,
    -0.4921288788318634,
    0.03825824707746506,
    1.6713299751281738
  ],
  "best_iteration": 9,
  "all_results": [
    {
      "training_loss": 0.1353025734424591,
      "testing_loss": 0.1353025734424591,
      "best_weight": [
        -0.9206632971763611,
        -0.5069155097007751,
        0.2898232638835907,
        0.6117227673530579,
        1.1188091039657593,
        -0.09467490762472153,
        -0.3912215530872345,
        0.3297243118286133,
        0.26181215047836304,
        -0.17359808087348938,
        0.7683231830596924,
        -4.003294944763184,
        -0.029820719733834267,
        -0.21983779966831207,
        -0.6816810369491577,
        -0.6217483282089233,
        0.19646987318992615,
        0.04999246448278427,
        0.44641372561454773,
        -0.7189770340919495,
        -1.001146674156189,
        0.2844274342060089,
        -0.4773164391517639,
        0.1482011377811432,
        -0.08910880982875824,
        1.4215599298477173,
        -1.2118775844573975,
        -0.29713743925094604,
        0.8514053821563721,
        1.7860288619995117,
        0.17181862890720367,
        -3.01796293258667,
        0.6112629771232605,
        -0.6811138391494751,
        0.3213931918144226,
        0.7156223058700562,
        0.15067239105701447,
        0.5458298921585083,
        0.07863540947437286,
        0.944724977016449,
        0.3271828293800354,
        -0.05452415347099304,
        -0.20427677035331726,
        0.10433537513017654,
        -0.6403102874755859,
        0.06367029249668121,
        0.3904937505722046,
        -0.4865647256374359,
        0.3823082745075226,
        -0.07878578454256058,
        -0.07324147969484329,
        -0.703200101852417,
        0.09947879612445831,
        2.133370876312256,
        -0.31411826610565186,
        -1.070887804031372,
        1.3783410787582397,
        0.46749424934387207,
        0.44161829352378845,
        0.29502829909324646,
        -0.14770349860191345,
        0.13889381289482117,
        -0.3216779828071594,
        -0.049531515687704086,
        -0.45813965797424316,
        0.24636459350585938
      ]
    },
    {
      "training_loss": 0.13197873532772064,
      "testing_loss": 0.13197873532772064,
      "best_weight": [
        0.4478950500488281,
        -0.4264737665653229,
        0.5410318374633789,
        0.43096885085105896,
        -0.37942007184028625,
        -0.06999339908361435,
        3.2873873710632324,
        -0.038819946348667145,
        -0.06250540912151337,
        2.245366096496582,
        0.3252898156642914,
        -0.21368509531021118,
        0.28010496497154236,
        -0.4087579548358917,
        -0.03728284686803818,
        -0.14385588467121124,
        -0.5068212151527405,
        -2.2505626678466797,
        -0.42518770694732666,
        -0.5305833220481873,
        -0.32979071140289307,
        -1.6489883661270142,
        -0.4216434955596924,
        0.057198844850063324,
        -0.5577703714370728,
        0.0019512102007865906,
        0.23858433961868286,
        0.04725998267531395,
        0.05947868153452873,
        0.10285534709692001,
        3.098754405975342,
        0.5686630606651306,
        0.06883703917264938,
        0.20334896445274353,
        -0.0009025686886161566,
        -1.7224125862121582,
        0.1530551016330719,
        -0.3396703898906708,
        -0.4235590696334839,
        -0.2650507986545563,
        0.15266378223896027,
        -0.9158689379692078,
        -0.06544145196676254,
        0.13246940076351166,
        0.03442908823490143,
        -0.15048743784427643,
        0.8276275992393494,
        -0.16255737841129303,
        -1.4493190050125122,
        -0.025023305788636208,
        1.0875589847564697,
        -0.3682648837566376,
        -0.24052953720092773,
        1.156750202178955,
        2.823192834854126,
        -0.08580981940031052,
        -2.2264492511749268,
        -0.21814149618148804,
        -0.47608307003974915,
        -0.07955798506736755,
        -0.5156430602073669,
        -0.027125827968120575,
        1.0271803140640259,
        -0.6030571460723877,
        0.1917220652103424,
        0.06421474367380142
      ]
    },
    {
      "training_loss": 0.1774941086769104,
      "testing_loss": 0.1774941086769104,
      "best_weight": [
        -0.06246116757392883,
        0.4430152177810669,
        0.15164417028427124,
        0.1268436461687088,
        0.07613158971071243,
        0.3046722710132599,
        0.6552784442901611,
        0.6782011985778809,
        -0.5843551754951477,
        0.9467142820358276,
        -0.6015366911888123,
        0.012817144393920898,
        0.11408266425132751,
        -0.2287028282880783,
        -0.4541204273700714,
        0.3318207263946533,
        1.8487046957015991,
        -1.5639019012451172,
        -0.1045319065451622,
        -0.2467641532421112,
        -0.01608545519411564,
        0.14410579204559326,
        -0.26514679193496704,
        -0.0892200693488121,
        0.6489163637161255,
        -0.1575624644756317,
        0.018149398267269135,
        -0.19174014031887054,
        -0.17823313176631927,
        -0.7932093739509583,
        0.48552244901657104,
        -0.15779712796211243,
        0.41522136330604553,
        -0.3095989227294922,
        -0.41402575373649597,
        0.2002355009317398,
        0.22651991248130798,
        0.04373030737042427,
        0.32456615567207336,
        -0.17826354503631592,
        -0.09060090780258179,
        0.9362735748291016,
        -0.11384958028793335,
        -0.437831312417984,
        -0.2990295886993408,
        -0.3852522373199463,
        1.140690565109253,
        0.4653966426849365,
        0.18054592609405518,
        0.11840229481458664,
        0.15948191285133362,
        0.8330994248390198,
        0.3985725939273834,
        0.5732585787773132,
        -0.22661416232585907,
        0.2309322953224182,
        -0.7694026231765747,
        -0.09771709144115448,
        0.4721231460571289,
        0.2555300295352936,
        0.04423846676945686,
        -0.34182557463645935,
        0.3139345645904541,
        -0.9635895490646362,
        -0.09818135201931,
        2.8608946800231934
      ]
    },
    {
      "training_loss": 0.13002340495586395,
      "testing_loss": 0.13002340495586395,
      "best_weight": [
        0.08960890024900436,
        -0.3117266893386841,
        -0.4780820310115814,
        -0.9194916486740112,
        -0.20916470885276794,
        -0.8309037089347839,
        0.5913188457489014,
        0.4981069266796112,
        0.015342759899795055,
        0.956041693687439,
        0.6715741753578186,
        0.20039601624011993,
        -1.4572948217391968,
        0.3328574001789093,
        1.6557132005691528,
        -2.803107976913452,
        2.3829245567321777,
        -0.4454222023487091,
        1.9030994176864624,
        -1.1056017875671387,
        -0.8393533825874329,
        0.02359360083937645,
        -0.24615038931369781,
        -0.2726682722568512,
        -0.33074718713760376,
        -0.381594717502594,
        -0.4742373824119568,
        -0.619704008102417,
        -0.12672996520996094,
        -0.10133339464664459,
        -0.07196405529975891,
        0.09209413081407547,
        -0.3786412179470062,
        -0.004890991374850273,
        0.520499050617218,
        0.31878551840782166,
        -0.01767352782189846,
        -0.6284429430961609,
        0.08329030126333237,
        -0.05259856581687927,
        0.7273954749107361,
        -0.7405842542648315,
        0.12259099632501602,
        0.8440834283828735,
        -1.2751669883728027,
        0.6105090379714966,
        0.22629211843013763,
        1.1921758651733398,
        0.013169442303478718,
        0.48927074670791626,
        -0.16447797417640686,
        0.25232991576194763,
        0.26268479228019714,
        -0.03293938934803009,
        -0.3287558853626251,
        -0.4415908455848694,
        0.7403685450553894,
        0.4396405816078186,
        0.14607472717761993,
        0.7480592131614685,
        1.6752114295959473,
        -0.4941553771495819,
        -0.421450138092041,
        -0.14835889637470245,
        0.4795341491699219,
        -0.11220172792673111
      ]
    },
    {
      "training_loss": 0.15023471415042877,
      "testing_loss": 0.15023471415042877,
      "best_weight": [
        -0.07616185396909714,
        0.7507025003433228,
        0.1409446746110916,
        0.5626295804977417,
        -0.057196006178855896,
        0.5108007788658142,
        0.12428037822246552,
        -0.43949928879737854,
        0.36282476782798767,
        0.014960575848817825,
        -0.12537319958209991,
        -0.19159811735153198,
        -0.04466960206627846,
        -0.33212077617645264,
        -0.01839449629187584,
        0.31490689516067505,
        0.16390909254550934,
        0.38615143299102783,
        -0.3805136978626251,
        -0.4234839379787445,
        -0.39103367924690247,
        -0.6138494610786438,
        -0.13126088678836823,
        -0.3881210684776306,
        -0.22385148704051971,
        0.023064887151122093,
        -0.5895608067512512,
        -0.6899507641792297,
        -0.01564340852200985,
        1.4177194833755493,
        -0.5569913983345032,
        -0.7662346363067627,
        -0.5411611199378967,
        -0.10562871396541595,
        -0.30451932549476624,
        0.7142746448516846,
        -0.37746673822402954,
        0.16542764008045197,
        -0.03836660832166672,
        -0.014052625745534897,
        -0.24282889068126678,
        -0.13944369554519653,
        -0.22258210182189941,
        -0.3177429437637329,
        0.026873916387557983,
        0.004406927153468132,
        -0.10723575949668884,
        0.40453076362609863,
        -0.9136569499969482,
        -0.3685076832771301,
        -3.813113212585449,
        -0.20619845390319824,
        -0.2712501883506775,
        0.04915885254740715,
        0.14158807694911957,
        0.23913894593715668,
        -0.04564286023378372,
        0.37616637349128723,
        -0.18778303265571594,
        0.3057819902896881,
        -1.1362037658691406,
        0.8205933570861816,
        0.4185810685157776,
        -0.4125348925590515,
        -0.020409997552633286,
        1.4310187101364136
      ]
    },
    {
      "training_loss": 0.20352968573570251,
      "testing_loss": 0.20352968573570251,
      "best_weight": [
        -0.08674892783164978,
        0.13939644396305084,
        -1.0291119813919067,
        0.08745065331459045,
        -0.05276191979646683,
        -0.030282653868198395,
        -0.023220248520374298,
        0.1686415672302246,
        -0.19223622977733612,
        -0.007001170888543129,
        0.11978691816329956,
        -0.5334181189537048,
        0.2889871299266815,
        -0.09780087321996689,
        0.06500953435897827,
        0.8139171600341797,
        0.4174949526786804,
        1.6470671892166138,
        -0.295931875705719,
        0.22062018513679504,
        -0.2971669137477875,
        -0.08081226050853729,
        -0.042329106479883194,
        0.141352578997612,
        0.0918228030204773,
        -0.1682446449995041,
        -0.28710559010505676,
        0.2549987733364105,
        -0.4121062159538269,
        0.1995217353105545,
        -0.19054532051086426,
        -0.10110901296138763,
        -0.22518198192119598,
        0.9126101732254028,
        0.24470631778240204,
        0.16175700724124908,
        0.6618645787239075,
        0.08371877670288086,
        0.220964714884758,
        0.47646063566207886,
        -0.04688270390033722,
        -0.3997395634651184,
        -1.1089074611663818,
        0.020881645381450653,
        0.3708575367927551,
        -0.03253592923283577,
        0.9635194540023804,
        -0.3437255620956421,
        0.01649942249059677,
        0.42475375533103943,
        -0.036481309682130814,
        -0.20017169415950775,
        0.05766456574201584,
        0.6325916051864624,
        -0.4010010361671448,
        0.07661532610654831,
        0.1482420563697815,
        0.3865104615688324,
        -0.9584418535232544,
        -0.13993412256240845,
        0.10966290533542633,
        -0.1016344353556633,
        0.22055494785308838,
        0.8213297724723816,
        0.20332074165344238,
        -0.3775012493133545
      ]
    },
    {
      "training_loss": 0.13311998546123505,
      "testing_loss": 0.13311998546123505,
      "best_weight": [
        0.20437048375606537,
        -0.6403030157089233,
        -0.6181082129478455,
        0.20917761325836182,
        1.0029174089431763,
        1.479029893875122,
        0.026109861209988594,
        -0.43807247281074524,
        -0.03355518355965614,
        -0.20163792371749878,
        -0.011595776304602623,
        0.21752049028873444,
        -0.018786482512950897,
        0.08971375972032547,
        -0.2575009763240814,
        -0.11339331418275833,
        -0.43514499068260193,
        -0.11083238571882248,
        -0.08347496390342712,
        -0.2569000720977783,
        -0.27351048588752747,
        0.2012849897146225,
        -0.014646803960204124,
        1.915476679801941,
        -0.03926181048154831,
        -0.9873635768890381,
        -0.21248772740364075,
        0.7413727641105652,
        -0.4027930796146393,
        -0.11219009757041931,
        -0.47922009229660034,
        -0.4830917716026306,
        -0.4108997583389282,
        -0.1506028026342392,
        -0.12730911374092102,
        0.0066762650385499,
        0.1395156979560852,
        0.43075796961784363,
        -0.2879595160484314,
        -0.4860893487930298,
        -0.514071524143219,
        -0.06346333771944046,
        0.7168712019920349,
        -0.5902682542800903,
        -0.24352480471134186,
        -0.17804569005966187,
        2.0574049949645996,
        0.22012093663215637,
        0.7824633121490479,
        0.3394850492477417,
        0.4921397864818573,
        0.31529122591018677,
        -0.5652638673782349,
        -0.10105957090854645,
        0.721450686454773,
        0.6295899748802185,
        -0.5566604733467102,
        0.3874080181121826,
        -0.5234993696212769,
        -0.9103965759277344,
        0.1837797313928604,
        0.6029987931251526,
        1.7945834398269653,
        0.695912778377533,
        0.010041696019470692,
        0.08116187900304794
      ]
    },
    {
      "training_loss": 0.12950444221496582,
      "testing_loss": 0.12950444221496582,
      "best_weight": [
        -1.1610549688339233,
        2.0919241905212402,
        -0.7094722390174866,
        0.29758498072624207,
        0.17971296608448029,
        0.3002985119819641,
        -0.3471260666847229,
        0.1924133002758026,
        0.7435150742530823,
        -0.15039819478988647,
        0.21152354776859283,
        -0.21893282234668732,
        -0.5893656611442566,
        0.6454101800918579,
        0.15790653228759766,
        1.4141737222671509,
        0.4447633624076843,
        0.26215702295303345,
        -1.2764568328857422,
        -0.13753777742385864,
        -0.5560711622238159,
        -0.3074292242527008,
        -0.07946060597896576,
        1.7062294483184814,
        -0.32884475588798523,
        -0.49118539690971375,
        0.44999393820762634,
        0.6343190670013428,
        0.021962296217679977,
        -0.4162707030773163,
        2.044482707977295,
        0.2882903516292572,
        -0.11022386699914932,
        -0.038433000445365906,
        0.6701998710632324,
        0.05392763018608093,
        -0.0011237133294343948,
        0.08256977796554565,
        0.14444200694561005,
        0.42051512002944946,
        0.7674176692962646,
        -2.077617645263672,
        -0.35145100951194763,
        0.20436953008174896,
        -0.5047638416290283,
        -0.37430161237716675,
        -0.21905502676963806,
        -0.7201380729675293,
        -0.12587371468544006,
        -1.6793104410171509,
        1.2386568784713745,
        -0.29102587699890137,
        0.24090874195098877,
        0.7463076114654541,
        -1.1056654453277588,
        -0.06552436202764511,
        -0.3186691999435425,
        0.07226846367120743,
        -0.11491009593009949,
        -0.24375443160533905,
        1.5394614934921265,
        0.05604741722345352,
        0.34265148639678955,
        0.24164098501205444,
        -0.13538216054439545,
        1.3676968812942505
      ]
    },
    {
      "training_loss": 0.14857234060764313,
      "testing_loss": 0.14857234060764313,
      "best_weight": [
        2.3114917278289795,
        -0.6723268032073975,
        -0.04591229557991028,
        0.5463758707046509,
        -0.11344899982213974,
        -0.24846066534519196,
        0.09330536425113678,
        0.5967514514923096,
        0.044016893953084946,
        0.07209097594022751,
        0.03862646222114563,
        -0.4290332794189453,
        -0.4539974331855774,
        0.47378113865852356,
        0.04916740953922272,
        -0.022559555247426033,
        1.7671762704849243,
        -2.0593340396881104,
        0.3583802878856659,
        0.2916637063026428,
        -0.3198128342628479,
        -0.41987836360931396,
        0.2205720692873001,
        0.06785720586776733,
        -0.08951664716005325,
        0.4517371654510498,
        -0.0744253396987915,
        -0.34582075476646423,
        -0.07718562334775925,
        0.07240834832191467,
        -0.9521852135658264,
        0.42684900760650635,
        0.2554510831832886,
        0.9234230518341064,
        -0.1398058384656906,
        -0.03899616003036499,
        -0.03147657588124275,
        0.02813451923429966,
        0.2370171993970871,
        0.022594790905714035,
        -0.13702484965324402,
        0.3147585093975067,
        0.43123623728752136,
        -0.02228851057589054,
        -0.09316961467266083,
        -0.04220764338970184,
        0.7639955878257751,
        0.09330437332391739,
        0.14715883135795593,
        0.4891846179962158,
        -0.2394699603319168,
        0.009614389389753342,
        -0.4761798679828644,
        -0.25897538661956787,
        0.17394176125526428,
        0.2362155020236969,
        0.2033245861530304,
        -0.6488713026046753,
        0.3110807240009308,
        2.3910999298095703,
        -0.07171564549207687,
        -0.0782005786895752,
        -1.2513409852981567,
        0.10828720033168793,
        -0.019031494855880737,
        0.20273439586162567
      ]
    },
    {
      "training_loss": 0.12726101279258728,
      "testing_loss": 0.12726101279258728,
      "best_weight": [
        -0.7090898156166077,
        -0.7856414914131165,
        -0.6030523777008057,
        -0.823967695236206,
        -0.4719791114330292,
        -0.06858119368553162,
        0.04787050187587738,
        -0.3263591229915619,
        -0.015882141888141632,
        0.09819801896810532,
        -0.2132721245288849,
        0.008020341396331787,
        0.43433427810668945,
        0.3686111867427826,
        0.4464508891105652,
        0.6537708640098572,
        -0.4220680594444275,
        0.17571984231472015,
        -3.289276599884033,
        -0.34007227420806885,
        -0.09440270811319351,
        1.6704928874969482,
        -0.09488442540168762,
        0.12506023049354553,
        -0.18192075192928314,
        -0.37844836711883545,
        -0.14785467088222504,
        -0.20203058421611786,
        0.08092284202575684,
        0.09757563471794128,
        -0.052688419818878174,
        -0.9153028726577759,
        1.02297043800354,
        0.10853110998868942,
        0.09492723643779755,
        -0.6648187041282654,
        0.27205461263656616,
        0.054951027035713196,
        0.23419374227523804,
        0.1310790777206421,
        0.1944318413734436,
        0.27204641699790955,
        0.04933907836675644,
        -0.39342108368873596,
        0.19733114540576935,
        -0.3252817392349243,
        -0.1551484316587448,
        0.04121844097971916,
        0.10656630992889404,
        -1.3728018999099731,
        0.3028545677661896,
        -0.1361227184534073,
        0.35105475783348083,
        -0.08940929919481277,
        0.19473432004451752,
        -0.8926885724067688,
        0.27003738284111023,
        -0.6475929617881775,
        -1.2875432968139648,
        -0.30897483229637146,
        0.4044310450553894,
        0.1089504212141037,
        -0.13118360936641693,
        -0.4921288788318634,
        0.03825824707746506,
        1.6713299751281738
      ]
    }
  ]
}{
  "average_training_loss": 0.09214494377374649,
  "average_testing_loss": 0.09214494377374649,
  "best_weight": [
    -0.0010846583172678947,
    -0.37010276317596436,
    -0.7972209453582764,
    -0.2987711429595947,
    -0.5172598361968994,
    1.1558161973953247,
    0.6249732971191406,
    -0.15694816410541534,
    -0.1948695331811905,
    -0.32973164319992065,
    0.45459461212158203,
    1.740991473197937,
    -0.10292413830757141,
    0.4190572202205658,
    0.18509384989738464,
    -0.6782838702201843,
    0.13226182758808136,
    -0.4627801775932312,
    0.2069258838891983,
    0.32272815704345703,
    0.44033345580101013,
    0.5851050615310669,
    -0.25779715180397034,
    0.2382202446460724,
    0.5961225032806396,
    0.24763475358486176,
    0.06560816615819931,
    -0.6292086243629456,
    -0.5133177042007446,
    -0.11767098307609558,
    0.11421174556016922,
    0.16542060673236847,
    0.26222148537635803,
    0.2508743107318878,
    0.791996419429779,
    -1.2092329263687134,
    0.6008542776107788,
    0.5662822723388672,
    -1.7108345031738281,
    -0.866209089756012,
    0.5037056803703308,
    -0.7920640110969543,
    -0.4176367223262787,
    -0.3429565131664276,
    1.6486395597457886,
    2.794724702835083,
    2.447749614715576,
    0.5871425271034241,
    0.9058032035827637,
    -0.11798790842294693,
    0.44369596242904663,
    0.7853971719741821,
    -0.3244984447956085,
    0.4636373221874237,
    0.16205622255802155,
    -0.8544357419013977,
    0.7870098948478699,
    -0.8487464785575867,
    1.3352586030960083,
    -1.7859470844268799,
    -1.1278489828109741,
    1.1776320934295654,
    0.6411392092704773,
    0.2832089960575104,
    0.14343352615833282,
    -1.4666937589645386
  ],
  "best_iteration": 9,
  "all_results": [
    {
      "training_loss": 0.08876781165599823,
      "testing_loss": 0.08876781165599823,
      "best_weight": [
        -0.20400188863277435,
        0.3532547652721405,
        0.13296839594841003,
        0.34913185238838196,
        -0.052414048463106155,
        -2.5612094402313232,
        0.41299673914909363,
        -0.22582057118415833,
        0.10251125693321228,
        0.30907583236694336,
        -4.235588073730469,
        1.5867810249328613,
        0.21103717386722565,
        0.21495625376701355,
        -0.37304753065109253,
        -0.008246397599577904,
        -0.1893327832221985,
        -1.8516367673873901,
        0.08453883975744247,
        -0.22582265734672546,
        -0.395381361246109,
        1.7684087753295898,
        0.17581771314144135,
        -1.2783828973770142,
        0.12499712407588959,
        0.5761159062385559,
        0.9203929901123047,
        1.1064448356628418,
        0.4925515055656433,
        0.0061422912403941154,
        -1.2790688276290894,
        -0.6767747402191162,
        -1.031264066696167,
        0.05153130739927292,
        0.9968498349189758,
        0.0460507869720459,
        0.2961186468601227,
        0.34502914547920227,
        -0.5076820850372314,
        0.05568204075098038,
        0.4984597861766815,
        -0.7056995630264282,
        -0.5907297730445862,
        0.3969508111476898,
        0.712529718875885,
        0.5446729063987732,
        0.84284907579422,
        1.0625522136688232,
        0.8039709329605103,
        0.2635888457298279,
        1.0038058757781982,
        -1.0914748907089233,
        0.26894068717956543,
        2.7144885063171387,
        0.09861896932125092,
        0.40288984775543213,
        0.5373247861862183,
        -0.7141361236572266,
        0.6812193989753723,
        0.43416258692741394,
        0.9373300671577454,
        0.4353002607822418,
        -0.5723405480384827,
        -1.713080644607544,
        -0.387193500995636,
        1.009053111076355
      ]
    },
    {
      "training_loss": 0.10083983838558197,
      "testing_loss": 0.10083983838558197,
      "best_weight": [
        1.167513370513916,
        -0.8735809922218323,
        -0.5212215781211853,
        0.3906940221786499,
        0.14480054378509521,
        0.4534852206707001,
        -0.27997100353240967,
        0.22970063984394073,
        0.5467684268951416,
        -0.02112353965640068,
        0.151558518409729,
        0.12794943153858185,
        0.27630728483200073,
        0.55813068151474,
        0.2306169718503952,
        0.4477030038833618,
        -0.8218603134155273,
        1.0271122455596924,
        -0.02880256623029709,
        0.010984235443174839,
        -0.10216771811246872,
        -0.4769448935985565,
        0.720344066619873,
        0.1899879276752472,
        0.44562625885009766,
        0.13002365827560425,
        -0.03415941074490547,
        0.8021095395088196,
        0.4443356394767761,
        0.4250825047492981,
        -0.3786957561969757,
        0.5339624881744385,
        0.08435451239347458,
        0.015341851860284805,
        0.2568443715572357,
        -0.6905717849731445,
        -0.11689357459545135,
        0.06879913806915283,
        -0.16929742693901062,
        0.8584122061729431,
        0.6108450293540955,
        1.0502862930297852,
        -0.15812447667121887,
        0.4509813189506531,
        0.7314290404319763,
        0.19770587980747223,
        -1.0677239894866943,
        -0.40046751499176025,
        1.5464884042739868,
        0.47728821635246277,
        0.44745874404907227,
        -0.157101571559906,
        0.5064108967781067,
        0.019622158259153366,
        0.509070873260498,
        0.040233951061964035,
        0.8498929738998413,
        2.130099296569824,
        0.9683745503425598,
        0.9298980832099915,
        0.8232559561729431,
        0.9886603951454163,
        0.5258516073226929,
        1.2261906862258911,
        0.1598423421382904,
        -2229.531005859375
      ]
    },
    {
      "training_loss": 0.10277175158262253,
      "testing_loss": 0.10277175158262253,
      "best_weight": [
        0.7981874942779541,
        0.37105438113212585,
        1.2827740907669067,
        0.39339888095855713,
        1.5159505605697632,
        -0.46099942922592163,
        0.7665055990219116,
        0.43894168734550476,
        -0.033747997134923935,
        -0.1610046923160553,
        -0.5515561103820801,
        2.5054638385772705,
        0.2421165555715561,
        0.4439367949962616,
        -0.10530051589012146,
        -0.7127500176429749,
        0.38830453157424927,
        0.09609270840883255,
        -0.39349794387817383,
        0.7369857430458069,
        1.0405951738357544,
        -0.6488783955574036,
        1.061867117881775,
        -0.9910185933113098,
        2.0700395107269287,
        0.9035401344299316,
        -0.6512524485588074,
        -0.5682048201560974,
        1.553369164466858,
        2.1941661834716797,
        0.02288733795285225,
        0.8640182018280029,
        0.13137008249759674,
        -0.2173232138156891,
        -0.5155969858169556,
        1.1878905296325684,
        0.0610756054520607,
        0.8108027577400208,
        1.2138017416000366,
        0.18893632292747498,
        0.01189510803669691,
        0.26811376214027405,
        -0.5310037136077881,
        -0.2375548630952835,
        0.680459201335907,
        1.1412253379821777,
        -0.1741577684879303,
        0.6930956840515137,
        -0.5400595664978027,
        -0.22840364277362823,
        -0.09635283797979355,
        0.851296067237854,
        0.8202789425849915,
        -0.6118695139884949,
        0.7315152287483215,
        0.11086029559373856,
        0.5770010948181152,
        1.156914234161377,
        -1.7971218824386597,
        0.9295920133590698,
        0.6572664976119995,
        -1.6881937980651855,
        -0.8748487830162048,
        -1.0997471809387207,
        -0.2493780106306076,
        2605943552
      ]
    },
    {
      "training_loss": 0.08826330304145813,
      "testing_loss": 0.08826330304145813,
      "best_weight": [
        0.11620588600635529,
        3.833552122116089,
        0.2629571259021759,
        0.03500178083777428,
        -0.9474760293960571,
        -2.599135398864746,
        0.36525291204452515,
        0.36979925632476807,
        0.32438600063323975,
        0.4041439890861511,
        -0.2202134132385254,
        -0.6285451650619507,
        0.3619330823421478,
        0.5987681746482849,
        0.5676358938217163,
        0.5588979721069336,
        0.35073378682136536,
        -0.7619894742965698,
        -0.11928178369998932,
        0.15126384794712067,
        -0.33243879675865173,
        -0.029850663617253304,
        -0.400641530752182,
        0.0007710409699939191,
        1.2065836191177368,
        0.8906517624855042,
        1.0313526391983032,
        1.7617225646972656,
        -0.5939260721206665,
        0.1130685955286026,
        0.3472614586353302,
        -0.624751627445221,
        0.09817449003458023,
        -0.4265374541282654,
        -0.18977601826190948,
        -0.26098012924194336,
        0.5966134667396545,
        -0.179345965385437,
        -0.10551498830318451,
        -0.057880863547325134,
        0.485267698764801,
        -0.021118810400366783,
        0.45202189683914185,
        -1.1605210304260254,
        0.756209135055542,
        -0.17211087048053741,
        0.32754823565483093,
        -0.0034432755783200264,
        0.9580339193344116,
        -0.24056744575500488,
        -0.05571955442428589,
        -0.1757282167673111,
        0.016921039670705795,
        0.09093669801950455,
        -1.1452093124389648,
        1.0741825103759766,
        0.37270787358283997,
        2.528332471847534,
        1.3502750396728516,
        -1.0791537761688232,
        -0.6525577306747437,
        0.5221180319786072,
        1.042121171951294,
        0.6921970844268799,
        0.2991342842578888,
        20146.19140625
      ]
    },
    {
      "training_loss": 0.08630134910345078,
      "testing_loss": 0.08630134910345078,
      "best_weight": [
        -0.34210968017578125,
        -1.0917390584945679,
        0.6762365102767944,
        -0.49472886323928833,
        -0.09796210378408432,
        0.647948145866394,
        0.5096157789230347,
        0.06507129967212677,
        0.49060848355293274,
        0.5996437668800354,
        0.909869909286499,
        -0.2785435914993286,
        -1.5126456022262573,
        0.14191892743110657,
        1.3880401849746704,
        -1.0622889995574951,
        -0.545261800289154,
        -0.5050733685493469,
        1.078170895576477,
        0.35048311948776245,
        0.27524659037590027,
        0.4707508981227875,
        0.44290584325790405,
        -0.8242728114128113,
        0.33052921295166016,
        0.17734083533287048,
        0.4925331175327301,
        0.7178989052772522,
        -0.8408616185188293,
        1.0477060079574585,
        -0.04364681988954544,
        0.04912293329834938,
        1.194464921951294,
        0.34982335567474365,
        0.24948300421237946,
        2.3249614238739014,
        0.2725851237773895,
        -0.8217063546180725,
        -0.6311380863189697,
        0.4178125858306885,
        0.053273286670446396,
        0.15678633749485016,
        0.23745010793209076,
        0.16873979568481445,
        0.14175032079219818,
        0.13943599164485931,
        -0.33083873987197876,
        0.3615930676460266,
        -0.8561851978302002,
        -1.0367019176483154,
        2.5682787895202637,
        -0.4745667278766632,
        0.13103161752223969,
        -0.06299499422311783,
        0.6868897080421448,
        -0.06359364092350006,
        0.6320377588272095,
        -1.9022626876831055,
        0.42525383830070496,
        1.1846503019332886,
        -1.4368236064910889,
        -0.5329721570014954,
        -0.5385482311248779,
        -0.5918620228767395,
        0.5778719782829285,
        -0.7366987466812134
      ]
    },
    {
      "training_loss": 0.09406279027462006,
      "testing_loss": 0.09406279027462006,
      "best_weight": [
        0.137980118393898,
        -0.12463139742612839,
        0.2811359763145447,
        0.21628278493881226,
        -0.9724183678627014,
        0.9543529152870178,
        4.464459419250488,
        -0.18450458347797394,
        0.17075008153915405,
        0.27180588245391846,
        -1.396519422531128,
        0.8580802083015442,
        0.08704988658428192,
        -0.3979417681694031,
        0.20519322156906128,
        0.17429842054843903,
        -0.32356929779052734,
        0.18037985265254974,
        0.6537749767303467,
        0.3082328140735626,
        -0.21932703256607056,
        0.47150859236717224,
        0.5719307065010071,
        0.21860343217849731,
        0.3384859561920166,
        0.09150872379541397,
        0.3568207919597626,
        -0.09338512271642685,
        0.1970224380493164,
        0.931731641292572,
        -0.7041847109794617,
        -0.41125670075416565,
        0.1828262209892273,
        0.8873193860054016,
        -0.4720824062824249,
        0.8423181772232056,
        -0.31796884536743164,
        0.24879422783851624,
        -0.3071688711643219,
        -0.06409682333469391,
        -0.8732984662055969,
        2.280217170715332,
        0.3459167182445526,
        0.4885777533054352,
        0.3694118857383728,
        0.31538328528404236,
        0.36256852746009827,
        -1.1442824602127075,
        1.0485249757766724,
        1.1281003952026367,
        -0.2305513173341751,
        -0.26770538091659546,
        -0.1693376898765564,
        0.49506935477256775,
        -0.05417930707335472,
        -0.0589994378387928,
        0.6097572445869446,
        0.5980637669563293,
        2.3702147006988525,
        -1.2566256523132324,
        1.9053062200546265,
        -0.8414771556854248,
        -1.4725762605667114,
        1.2915148735046387,
        0.127760112285614,
        -4577436.5
      ]
    },
    {
      "training_loss": 0.08955893665552139,
      "testing_loss": 0.08955893665552139,
      "best_weight": [
        -1.744765043258667,
        -2.849463939666748,
        -0.17334702610969543,
        0.27291131019592285,
        -0.8230584859848022,
        1.5297306776046753,
        -0.16782623529434204,
        -0.14303913712501526,
        -0.43497785925865173,
        0.0435078926384449,
        -0.9683589339256287,
        0.25807249546051025,
        0.614392876625061,
        0.4389735460281372,
        0.517547070980072,
        0.48640358448028564,
        0.04988239333033562,
        0.9279477596282959,
        0.5131973028182983,
        0.11959213018417358,
        1.1185332536697388,
        -0.3095700144767761,
        -0.23335576057434082,
        -1.7382087707519531,
        0.6235238909721375,
        -1.1979955434799194,
        -0.27607572078704834,
        0.3231712579727173,
        -0.5230870246887207,
        -0.0027881492860615253,
        0.353288859128952,
        0.43459808826446533,
        0.3263760805130005,
        0.4280441403388977,
        -0.20188890397548676,
        -0.4032802879810333,
        0.4955815374851227,
        0.38190656900405884,
        -0.04027584567666054,
        0.8143790364265442,
        -0.7225839495658875,
        -0.15411874651908875,
        0.6138660311698914,
        -0.5188416838645935,
        0.18689164519309998,
        1.369951605796814,
        -1.1532225608825684,
        0.4796038269996643,
        0.16791868209838867,
        -0.6589103937149048,
        -0.14850080013275146,
        -0.6513679623603821,
        -1.3121916055679321,
        -1.2744495868682861,
        -1.2656965255737305,
        1.1186699867248535,
        0.47390010952949524,
        0.7958352565765381,
        0.905150294303894,
        -0.6809942126274109,
        -0.72926926612854,
        2.171886444091797,
        0.6873984336853027,
        -0.3414193093776703,
        -0.8967911005020142,
        0.08490722626447678
      ]
    },
    {
      "training_loss": 0.09038227051496506,
      "testing_loss": 0.09038227051496506,
      "best_weight": [
        -1.0090829133987427,
        -0.5851647257804871,
        -0.034190207719802856,
        0.031416431069374084,
        0.8784283399581909,
        1.2129566669464111,
        0.5448630452156067,
        0.029244642704725266,
        0.4627797603607178,
        0.6018185615539551,
        0.7522246837615967,
        -0.03264906629920006,
        -0.49640920758247375,
        -0.13101065158843994,
        0.03211380913853645,
        -0.8941287398338318,
        1.2603942155838013,
        -1.4752628803253174,
        1.2534425258636475,
        -1.4793339967727661,
        -1.2859218120574951,
        -0.929555356502533,
        -0.6156233549118042,
        0.19252829253673553,
        -0.4472605586051941,
        -0.3015715777873993,
        0.1980275809764862,
        0.07798220962285995,
        -0.3374265134334564,
        0.42010682821273804,
        -1.3514500856399536,
        0.5714823007583618,
        -0.057089291512966156,
        -0.06191466376185417,
        -0.16314871609210968,
        2.7604379653930664,
        0.6233776211738586,
        0.016223128885030746,
        0.8285078406333923,
        0.6204061508178711,
        0.41393908858299255,
        -0.999733030796051,
        0.4761233627796173,
        -0.9085103869438171,
        1.101892352104187,
        -0.5690812468528748,
        1.094098687171936,
        -1.5650064945220947,
        0.7393336296081543,
        -0.1171930804848671,
        2.8026227951049805,
        0.05326066166162491,
        0.0023618689738214016,
        0.1015079990029335,
        0.34848687052726746,
        0.5923336148262024,
        1.058258056640625,
        -1.675936222076416,
        -0.7244987487792969,
        0.8466377854347229,
        -1.0625056028366089,
        -0.8304135203361511,
        0.20913776755332947,
        0.7251535058021545,
        0.2021007537841797,
        2624330240
      ]
    },
    {
      "training_loss": 0.08852019160985947,
      "testing_loss": 0.08852019160985947,
      "best_weight": [
        0.08911024034023285,
        -0.32800930738449097,
        -0.4026341438293457,
        -0.741856038570404,
        0.6661068797111511,
        -1.4818974733352661,
        0.25259414315223694,
        0.04880005121231079,
        0.08934331685304642,
        0.08046021312475204,
        0.11569192260503769,
        0.23274031281471252,
        0.10355566442012787,
        -0.27877888083457947,
        0.028847752138972282,
        0.4981333017349243,
        2.897002935409546,
        -0.41359037160873413,
        0.5523459911346436,
        0.23706962168216705,
        0.7441300749778748,
        -0.5970224142074585,
        1.8314887285232544,
        1.1914743185043335,
        2.5575263500213623,
        -0.1169750913977623,
        0.15697184205055237,
        0.21256229281425476,
        0.9029259085655212,
        -0.34122973680496216,
        0.6955775618553162,
        -0.32794058322906494,
        0.4405349791049957,
        0.4609569013118744,
        0.15465016663074493,
        1.2107919454574585,
        -0.6136075854301453,
        -0.4024069905281067,
        0.4969717562198639,
        0.163417786359787,
        -0.06045569106936455,
        0.36743152141571045,
        0.5033922791481018,
        0.04370611906051636,
        0.14953415095806122,
        0.2327881008386612,
        -0.7243351340293884,
        -1.758310079574585,
        0.13926275074481964,
        0.32809051871299744,
        3.388435125350952,
        -0.22761082649230957,
        -0.1824522167444229,
        0.24533885717391968,
        0.06250102818012238,
        -0.3551700711250305,
        1.0278968811035156,
        -1.317879319190979,
        -0.590601921081543,
        -0.20757058262825012,
        0.6606207489967346,
        -1.0521800518035889,
        0.926383376121521,
        -0.4994010031223297,
        0.6741315722465515,
        14.311408042907715
      ]
    },
    {
      "training_loss": 0.0919811949133873,
      "testing_loss": 0.0919811949133873,
      "best_weight": [
        -0.0010846583172678947,
        -0.37010276317596436,
        -0.7972209453582764,
        -0.2987711429595947,
        -0.5172598361968994,
        1.1558161973953247,
        0.6249732971191406,
        -0.15694816410541534,
        -0.1948695331811905,
        -0.32973164319992065,
        0.45459461212158203,
        1.740991473197937,
        -0.10292413830757141,
        0.4190572202205658,
        0.18509384989738464,
        -0.6782838702201843,
        0.13226182758808136,
        -0.4627801775932312,
        0.2069258838891983,
        0.32272815704345703,
        0.44033345580101013,
        0.5851050615310669,
        -0.25779715180397034,
        0.2382202446460724,
        0.5961225032806396,
        0.24763475358486176,
        0.06560816615819931,
        -0.6292086243629456,
        -0.5133177042007446,
        -0.11767098307609558,
        0.11421174556016922,
        0.16542060673236847,
        0.26222148537635803,
        0.2508743107318878,
        0.791996419429779,
        -1.2092329263687134,
        0.6008542776107788,
        0.5662822723388672,
        -1.7108345031738281,
        -0.866209089756012,
        0.5037056803703308,
        -0.7920640110969543,
        -0.4176367223262787,
        -0.3429565131664276,
        1.6486395597457886,
        2.794724702835083,
        2.447749614715576,
        0.5871425271034241,
        0.9058032035827637,
        -0.11798790842294693,
        0.44369596242904663,
        0.7853971719741821,
        -0.3244984447956085,
        0.4636373221874237,
        0.16205622255802155,
        -0.8544357419013977,
        0.7870098948478699,
        -0.8487464785575867,
        1.3352586030960083,
        -1.7859470844268799,
        -1.1278489828109741,
        1.1776320934295654,
        0.6411392092704773,
        0.2832089960575104,
        0.14343352615833282,
        -1.4666937589645386
      ]
    }
  ]
}{
  "all_results": [
    {},
    {},
    {},
    {},
    {},
    {},
    {},
    {},
    {},
    {}
  ]
}{
  "all_results": [
    {},
    {},
    {},
    {},
    {},
    {},
    {},
    {},
    {},
    {}
  ]
}{
  "all_results": [
    {},
    {},
    {},
    {},
    {},
    {},
    {},
    {},
    {},
    {}
  ]
}{
  "all_results": [
    {},
    {},
    {},
    {},
    {},
    {},
    {},
    {},
    {},
    {}
  ]
}{
  "all_results": [
    {},
    {},
    {},
    {},
    {},
    {},
    {},
    {},
    {},
    {}
  ]
}{
  "all_results": [
    {},
    {},
    {},
    {},
    {},
    {},
    {},
    {},
    {},
    {}
  ]
}{
  "all_results": [
    {},
    {},
    {}
  ]
}{
  "all_results": [
    {},
    {},
    {}
  ]
}{
  "all_results": [
    {},
    {},
    {}
  ]
}{
  "all_results": [
    {},
    {},
    {}
  ]
}{
  "all_results": [
    {},
    {},
    {}
  ]
}{
  "all_results": [
    {},
    {},
    {}
  ]
}{
  "all_results": [
    {},
    {},
    {}
  ]
}{
  "all_results": [
    {},
    {},
    {}
  ]
}{
  "average_training_loss": 0.1446085423231125,
  "average_testing_loss": 0.1446085423231125,
  "best_weight": [
    0.31006547808647156,
    0.44776418805122375,
    -0.4808918833732605,
    -0.6147904396057129,
    -0.3329937160015106,
    -0.18385910987854004,
    -1.3762633800506592,
    0.6736761927604675,
    0.24034294486045837,
    0.05587276816368103,
    -6.731215953826904,
    -0.5385618805885315,
    -0.6696683764457703,
    -0.22380857169628143,
    -0.3130389451980591,
    0.09927564859390259,
    -0.19478972256183624,
    -0.06142927333712578,
    -0.2356797158718109,
    0.5325266718864441,
    0.014657741412520409,
    -0.35081198811531067,
    0.14729437232017517,
    -0.6267876029014587,
    -0.21469154953956604,
    -0.23285430669784546,
    -0.13482339680194855,
    -0.563700795173645,
    -0.9597740769386292,
    0.18793036043643951,
    -0.02305695228278637,
    -0.8493411540985107,
    -0.767111599445343,
    -0.61156165599823,
    -0.24730758368968964,
    -0.010732934810221195,
    0.990146815776825,
    -1.973264455795288,
    -1.0334243774414062,
    0.05302875488996506,
    -0.10618238151073456,
    -0.5690092444419861,
    0.4344458281993866,
    -0.859224259853363,
    -0.07842238247394562,
    0.2716495394706726,
    -2.101722240447998,
    -1.320195198059082,
    0.07522164285182953,
    0.4141366183757782,
    -0.9425005316734314,
    -1.6602357625961304,
    -0.2795918881893158,
    -0.5446996092796326,
    0.3446732759475708,
    -0.5070293545722961,
    -0.5364880561828613,
    0.1626872718334198,
    0.15670855343341827,
    0.275687575340271,
    0.48102107644081116,
    0.37249499559402466,
    0.38293159008026123,
    0.36885231733322144,
    0.24099694192409515,
    -0.5044545531272888
  ],
  "best_iteration": 2,
  "all_results": [
    {
      "training_loss": 0.1283293068408966,
      "testing_loss": 0.1283293068408966,
      "best_weight": [
        -0.4275757968425751,
        -0.9912382364273071,
        0.4936669170856476,
        0.8528335690498352,
        0.06655992567539215,
        0.14788103103637695,
        0.2909286618232727,
        0.10304617881774902,
        0.2868846654891968,
        -2.19169020652771,
        -0.24515824019908905,
        0.4006315767765045,
        0.8659213185310364,
        -0.34450051188468933,
        -1.0839872360229492,
        -0.9903927445411682,
        -0.905815064907074,
        -1.1419850587844849,
        0.03637979179620743,
        -0.24037405848503113,
        -0.43246254324913025,
        -1.331353783607483,
        -0.4799213707447052,
        0.6935667395591736,
        -0.44521841406822205,
        0.16532933712005615,
        0.4952490031719208,
        0.39482083916664124,
        -0.11768721044063568,
        -0.39590156078338623,
        -0.0004195738583803177,
        0.4529332220554352,
        -0.38380056619644165,
        0.29559326171875,
        1.1616610288619995,
        0.11077094823122025,
        -0.2880629003047943,
        -1.9389525651931763,
        -0.7376500964164734,
        -0.19172188639640808,
        -0.5025461912155151,
        0.7220119833946228,
        0.6961147785186768,
        0.47326621413230896,
        0.17478817701339722,
        1.2319614887237549,
        1.1108191013336182,
        -3.0194458961486816,
        -0.3390020430088043,
        -0.5006968379020691,
        0.5569828152656555,
        0.09861074388027191,
        0.14998261630535126,
        0.0369991809129715,
        0.523282527923584,
        -1.6701180934906006,
        0.27897021174430847,
        -0.06043195724487305,
        1.1279278993606567,
        -0.06744463741779327,
        1.0881677865982056,
        0.24401482939720154,
        0.06729156523942947,
        0.09759979695081711,
        -0.6120180487632751,
        0.7586053609848022
      ]
    },
    {
      "training_loss": 0.1453445553779602,
      "testing_loss": 0.1453445553779602,
      "best_weight": [
        -0.8758354187011719,
        0.04088768735527992,
        0.18688155710697174,
        0.08036784082651138,
        0.6705716252326965,
        -0.2351120412349701,
        -0.1475188285112381,
        -0.46841371059417725,
        0.3451559841632843,
        -0.6112685203552246,
        0.4018177390098572,
        0.5995821952819824,
        -1.8065766096115112,
        0.0549825057387352,
        0.2659279406070709,
        0.052471134811639786,
        -0.7703661918640137,
        -0.41578471660614014,
        -0.1137603223323822,
        -0.47967079281806946,
        0.3320121765136719,
        0.42340973019599915,
        0.663618266582489,
        -0.05702779069542885,
        -0.9980818629264832,
        1.368937373161316,
        1.0033395290374756,
        0.28422853350639343,
        0.41171514987945557,
        0.19146457314491272,
        0.7502761483192444,
        -0.6876087188720703,
        -0.5810613632202148,
        -0.036254748702049255,
        -0.7534962296485901,
        -0.23592795431613922,
        -0.36433249711990356,
        -1.5917844772338867,
        0.1294049620628357,
        2.743431568145752,
        0.30918923020362854,
        -0.06548583507537842,
        -0.025818128138780594,
        -0.766451358795166,
        0.3396201729774475,
        -0.9904941320419312,
        -0.2727411985397339,
        -0.5900241136550903,
        0.22320395708084106,
        -0.40397319197654724,
        -0.7291964292526245,
        -0.594587504863739,
        -0.12431694567203522,
        0.18258534371852875,
        -0.33652716875076294,
        0.23846013844013214,
        -0.20146720111370087,
        0.07917928695678711,
        0.2377208173274994,
        -0.7816116213798523,
        -1.0137604475021362,
        -0.13138699531555176,
        0.011983264237642288,
        0.5296366214752197,
        0.08877072483301163,
        0.15404118597507477
      ]
    },
    {
      "training_loss": 0.16015176475048065,
      "testing_loss": 0.16015176475048065,
      "best_weight": [
        0.31006547808647156,
        0.44776418805122375,
        -0.4808918833732605,
        -0.6147904396057129,
        -0.3329937160015106,
        -0.18385910987854004,
        -1.3762633800506592,
        0.6736761927604675,
        0.24034294486045837,
        0.05587276816368103,
        -6.731215953826904,
        -0.5385618805885315,
        -0.6696683764457703,
        -0.22380857169628143,
        -0.3130389451980591,
        0.09927564859390259,
        -0.19478972256183624,
        -0.06142927333712578,
        -0.2356797158718109,
        0.5325266718864441,
        0.014657741412520409,
        -0.35081198811531067,
        0.14729437232017517,
        -0.6267876029014587,
        -0.21469154953956604,
        -0.23285430669784546,
        -0.13482339680194855,
        -0.563700795173645,
        -0.9597740769386292,
        0.18793036043643951,
        -0.02305695228278637,
        -0.8493411540985107,
        -0.767111599445343,
        -0.61156165599823,
        -0.24730758368968964,
        -0.010732934810221195,
        0.990146815776825,
        -1.973264455795288,
        -1.0334243774414062,
        0.05302875488996506,
        -0.10618238151073456,
        -0.5690092444419861,
        0.4344458281993866,
        -0.859224259853363,
        -0.07842238247394562,
        0.2716495394706726,
        -2.101722240447998,
        -1.320195198059082,
        0.07522164285182953,
        0.4141366183757782,
        -0.9425005316734314,
        -1.6602357625961304,
        -0.2795918881893158,
        -0.5446996092796326,
        0.3446732759475708,
        -0.5070293545722961,
        -0.5364880561828613,
        0.1626872718334198,
        0.15670855343341827,
        0.275687575340271,
        0.48102107644081116,
        0.37249499559402466,
        0.38293159008026123,
        0.36885231733322144,
        0.24099694192409515,
        -0.5044545531272888
      ]
    }
  ]
}{
  "average_training_loss": 0.14509137471516928,
  "average_testing_loss": 0.14509137471516928,
  "best_weight": [
    -0.2401375025510788,
    -0.3516698181629181,
    -0.2814643383026123,
    -0.36350342631340027,
    0.10600054264068604,
    0.027514632791280746,
    0.09381978213787079,
    -0.17394010722637177,
    0.09737083315849304,
    -0.4010847806930542,
    -1.9929004907608032,
    -1.1723053455352783,
    0.3983343243598938,
    0.5637207627296448,
    -0.4778970181941986,
    -0.7943205833435059,
    0.39290082454681396,
    0.6451291441917419,
    -0.3231807351112366,
    0.1423007994890213,
    -0.400250643491745,
    -0.33956223726272583,
    -0.6860871911048889,
    -0.008167501538991928,
    -0.3054314851760864,
    -0.322296679019928,
    -0.06553847342729568,
    -0.18094563484191895,
    0.0429147332906723,
    0.17169968783855438,
    0.2023804485797882,
    0.29199472069740295,
    0.04303935915231705,
    0.26715436577796936,
    -0.4546513557434082,
    0.13176046311855316,
    0.22829470038414001,
    0.04875893518328667,
    0.09648697823286057,
    -0.6669303178787231,
    0.3695840835571289,
    0.08521807938814163,
    1.8891772031784058,
    -0.8692734241485596,
    0.21218693256378174,
    -0.728415310382843,
    0.004191305488348007,
    -1.0273520946502686,
    0.05970032513141632,
    -0.03568461164832115,
    0.028137534856796265,
    -0.5667685866355896,
    -0.7965027689933777,
    -0.09786857664585114,
    -0.5391154289245605,
    0.757355809211731,
    -0.8912785649299622,
    -0.014650310389697552,
    -0.8907201886177063,
    0.5686701536178589,
    1.1243315935134888,
    -0.22853773832321167,
    -0.36216557025909424,
    0.48186373710632324,
    0.4470022916793823,
    0.4793603718280792
  ],
  "best_iteration": 2,
  "all_results": [
    {
      "training_loss": 0.1432517021894455,
      "testing_loss": 0.1432517021894455,
      "best_weight": [
        0.5175312757492065,
        -0.3505863845348358,
        -0.9388394355773926,
        -0.5827189087867737,
        1.3484119176864624,
        -0.23167547583580017,
        0.07380466908216476,
        -0.2507130801677704,
        0.10928420722484589,
        -0.03705642372369766,
        -0.28491464257240295,
        0.11229118704795837,
        -0.5372058153152466,
        -0.014609093777835369,
        -0.4974483847618103,
        -0.5199471116065979,
        -0.41075170040130615,
        0.0014004716649651527,
        -3.8327102661132812,
        0.3159600794315338,
        0.35859495401382446,
        0.04363487660884857,
        -0.15272924304008484,
        0.13091818988323212,
        -0.01255704928189516,
        -0.24109050631523132,
        -0.18508286774158478,
        0.2683902680873871,
        0.20209673047065735,
        0.16059762239456177,
        0.16347213089466095,
        0.24356213212013245,
        -0.058887779712677,
        0.2928546965122223,
        0.28898465633392334,
        0.1075696274638176,
        -0.18648315966129303,
        -1.3126392364501953,
        0.08243503421545029,
        -0.009565174579620361,
        -0.4869815707206726,
        0.21044501662254333,
        0.4477601647377014,
        -0.03651558235287666,
        -0.6948817372322083,
        0.38798776268959045,
        0.41543588042259216,
        0.09248699247837067,
        -0.15884146094322205,
        -0.5539767742156982,
        0.23452827334403992,
        0.34075403213500977,
        0.03280608355998993,
        -0.0733887255191803,
        0.09148087352514267,
        -0.665285587310791,
        0.7691559791564941,
        -0.4758662283420563,
        1.4567495584487915,
        -0.0993732362985611,
        0.3973556160926819,
        -0.5646920800209045,
        -0.008087005466222763,
        0.4818970561027527,
        0.45988646149635315,
        -0.04375440627336502
      ]
    },
    {
      "training_loss": 0.14999589323997498,
      "testing_loss": 0.14999589323997498,
      "best_weight": [
        -0.4614226222038269,
        -0.19699235260486603,
        0.5877181887626648,
        0.27267247438430786,
        0.010948628187179565,
        0.07107523828744888,
        -0.2758540213108063,
        -0.002548620104789734,
        0.2976243495941162,
        0.18772880733013153,
        -0.1654326617717743,
        -0.2153073251247406,
        0.23338176310062408,
        0.7392786145210266,
        0.4656333923339844,
        0.7839426398277283,
        0.27402591705322266,
        -0.12557737529277802,
        0.7476059198379517,
        -0.6475423574447632,
        0.11914031207561493,
        -0.0447150319814682,
        -1.2357054948806763,
        -0.21366488933563232,
        0.09254351258277893,
        -0.05031752586364746,
        0.25111123919487,
        -0.17951136827468872,
        -0.13352179527282715,
        0.20540159940719604,
        -0.4364759624004364,
        -0.06315311789512634,
        -0.09303608536720276,
        -0.19490818679332733,
        0.09187205135822296,
        -0.6715599894523621,
        0.0607123039662838,
        0.09617380052804947,
        0.045712392777204514,
        -0.0130547396838665,
        0.2217966467142105,
        0.09566253423690796,
        -0.6403243541717529,
        -0.04724743962287903,
        1.1892973184585571,
        0.10001814365386963,
        2.343576431274414,
        -0.17764906585216522,
        0.17000147700309753,
        -0.08667977154254913,
        -0.1696426421403885,
        -0.11917983740568161,
        0.11332367360591888,
        0.05481056869029999,
        -0.02963336743414402,
        -0.1466667205095291,
        0.446105033159256,
        -0.30469998717308044,
        -1.686382532119751,
        0.5320671796798706,
        0.14598461985588074,
        -0.005850212648510933,
        0.1426810473203659,
        0.17123225331306458,
        0.05356685817241669,
        0.01770857721567154
      ]
    },
    {
      "training_loss": 0.14202652871608734,
      "testing_loss": 0.14202652871608734,
      "best_weight": [
        -0.2401375025510788,
        -0.3516698181629181,
        -0.2814643383026123,
        -0.36350342631340027,
        0.10600054264068604,
        0.027514632791280746,
        0.09381978213787079,
        -0.17394010722637177,
        0.09737083315849304,
        -0.4010847806930542,
        -1.9929004907608032,
        -1.1723053455352783,
        0.3983343243598938,
        0.5637207627296448,
        -0.4778970181941986,
        -0.7943205833435059,
        0.39290082454681396,
        0.6451291441917419,
        -0.3231807351112366,
        0.1423007994890213,
        -0.400250643491745,
        -0.33956223726272583,
        -0.6860871911048889,
        -0.008167501538991928,
        -0.3054314851760864,
        -0.322296679019928,
        -0.06553847342729568,
        -0.18094563484191895,
        0.0429147332906723,
        0.17169968783855438,
        0.2023804485797882,
        0.29199472069740295,
        0.04303935915231705,
        0.26715436577796936,
        -0.4546513557434082,
        0.13176046311855316,
        0.22829470038414001,
        0.04875893518328667,
        0.09648697823286057,
        -0.6669303178787231,
        0.3695840835571289,
        0.08521807938814163,
        1.8891772031784058,
        -0.8692734241485596,
        0.21218693256378174,
        -0.728415310382843,
        0.004191305488348007,
        -1.0273520946502686,
        0.05970032513141632,
        -0.03568461164832115,
        0.028137534856796265,
        -0.5667685866355896,
        -0.7965027689933777,
        -0.09786857664585114,
        -0.5391154289245605,
        0.757355809211731,
        -0.8912785649299622,
        -0.014650310389697552,
        -0.8907201886177063,
        0.5686701536178589,
        1.1243315935134888,
        -0.22853773832321167,
        -0.36216557025909424,
        0.48186373710632324,
        0.4470022916793823,
        0.4793603718280792
      ]
    }
  ]
}